#include "weight_table.h"
static int activation_type[] = {0, 0, 0};
static int weight_size[] = {2,20,20,20,5,5,5,1,1,};
static float weights[] = {-1.0385236,0.43241665,-0.25061527,-1.4106153,-0.4716104,0.4189925,0.1689523,0.83552015,0.67715096,-0.26348817,0.82589906,-0.030544713,0.75101733,-1.0065159,-0.050433617,0.9430266,-0.87091595,0.50025195,1.2900653,-0.825439,-0.31944013,0.65123457,-1.0399272,-1.3105083,-0.1492594,0.38184404,0.28762785,0.26014927,0.7834247,-0.8035355,0.8316878,-0.6255846,0.15660764,-0.3639847,-0.6598336,1.1551452,-0.1941632,-0.40405592,1.0230855,-1.2323745,0.060055375,-0.054751564,0.06310886,0.3397543,0.016542144,-0.010179795,-0.015740572,-0.046915118,-0.07313729,0.027640516,-0.11878686,0.00915532,-0.02057664,0.061793953,0.017927656,-0.18829565,0.03764501,-0.016652612,-0.22272857,0.18202113,0.51632977,-0.17278178,0.7566317,-0.47973058,-0.5035853,-0.6202994,0.4007577,-0.26573476,0.62502134,0.27655455,-0.13043255,0.52071476,0.48279288,-0.77336586,-0.6695667,0.27416518,0.34315628,1.0731981,-1.2701385,-1.2402476,0.40202284,0.3370327,0.27147907,-0.3215637,-0.33698654,0.2853513,-0.2717795,-0.6105268,0.20101406,0.27909315,0.16578607,0.30754763,-0.40424517,0.5167497,-0.23861536,-0.008719817,-0.14058861,-0.5464887,0.7233641,0.054602083,-0.24319063,-0.5450033,-0.25126323,0.22635148,0.89483213,0.33910295,-0.12619366,0.71057725,-0.18457188,-0.27886537,-0.62117875,-0.009610475,-0.2344512,0.79665136,0.86006385,0.37514696,0.0115149105,0.40699622,-0.15080176,-0.34670028,-0.49264434,-0.24949948,-0.32691783,-0.0036579883,0.4647231,0.23395637,0.10336503,0.5757056,-0.49940866,-0.693947,-0.14619711,0.4411672,0.2609607,-0.44650406,-0.3753254,-0.9400994,-0.5300783,-0.78665394,0.51524067,0.6616823,0.57359076,-0.0030468772,0.3560784,-0.3392197,-0.45886633,0.3472104,0.11176945,0.21550868,0.4455097,0.07065117,-0.48146874,-0.4129021,-1.1337888,0.35212475,1.1501852,0.7702206,0.20996146,0.8438623,-0.7498311,-0.94954383,0.058002826,0.0077649527,-0.056514967,-0.13990512,0.0035700302,-1.7293581,-0.81502974,-2.5865154,2.2114658,2.739898,-0.026132934,};
int* load_weight_size()
{
return weight_size;
}
float* load_weights()
{
return weights;
}
int* load_activation_type()
{
return activation_type;
}