#include "weight_table.h"
static int activation_type[] = {1, 1, 0};
static int weight_size[] = {2,40,40,40,50,50,50,1,1,};
static float weights[] = {-0.17174509,-0.32865512,-0.17801277,-0.18798998,0.4898825,0.40127176,-0.4584525,-0.15767807,0.38905513,0.37986982,0.26756048,0.4756554,0.21688375,0.35487095,-0.42738345,-0.30136958,-0.057994723,-0.27434865,0.4798198,0.08819322,0.1191284,0.4687178,0.4805742,-0.32423496,0.42615303,0.27402508,-0.16361621,-0.048824906,0.32358664,0.035742342,-0.024854125,-0.03714472,0.40907007,-0.08623031,0.41632515,-0.18272635,0.16955794,0.05530021,-0.014971078,0.030211585,-0.08761597,-0.22146869,-0.21889044,-0.28149506,0.28814387,0.20414057,-0.22113708,-0.023729334,0.33980837,0.20134225,0.41958883,0.52024156,0.4581585,0.51246685,0.2566142,-0.064928114,0.14552663,0.23588097,0.6062197,-0.12536676,0.111367464,0.32035878,0.22286037,-0.2625702,0.3613463,0.3017305,-0.20336105,-0.32654098,0.47248966,-0.27043056,0.20586714,-0.36570665,0.34313133,-0.2139824,-0.13431375,-0.20863442,0.500112,-0.17754611,0.111552715,0.269038,0.0,0.0,0.0,0.1054805,-0.10404318,-0.11514375,0.1480618,0.049638636,-0.090639,-0.050041202,-0.11999228,-0.28200242,-0.0935465,-0.071757354,-0.06463217,0.0,-0.006500246,-0.006901364,-0.30285242,-0.0369523,-0.0075785597,-0.07094002,-0.15675235,0.0,-0.07388337,-0.051831793,0.0,0.0,-0.15577501,0.0438508,0.00103394,0.0,-0.046451837,0.0,-0.012237423,0.0,-0.04180976,0.04706674,-0.0009684919,-0.018408434,0.063390195,-0.13815981,-0.12631314,-0.13133627,-0.24140924,0.043636948,0.12942877,0.07180703,0.25428966,0.1500555,0.25789282,0.07920954,0.025461346,0.17241517,-0.24009949,-0.17006287,-0.17319101,-0.17447285,0.13575366,-0.11158794,-0.110621214,-0.1941236,0.23223314,-0.084380224,0.070356995,-0.115986675,0.24775699,-0.0841399,-0.23024169,0.097302705,0.013602108,-0.062538266,-0.12322661,0.23981792,0.12014267,0.18530405,-0.12778798,-0.007980734,0.15481997,-0.049926654,0.17178911,-0.050454035,-0.026716352,0.25487223,0.20411557,-0.10722664,0.10513142,0.08093402,0.2516339,0.2242746,0.1177367,-0.041152403,0.04314366,0.14706764,0.07804102,-0.24043678,-0.0816886,-0.070476964,-0.22269678,-0.16539672,0.25499734,-0.25633875,-0.17138484,0.2022281,0.20922697,0.0076693892,-0.20245358,0.06973985,-0.022072434,-0.23576307,0.10996616,0.17431182,-0.21930626,0.23617706,0.03180909,-0.19708824,-0.2517546,-0.07915321,0.111637205,0.0851171,0.16372457,-0.19777513,-0.20470044,0.058645308,0.25261465,-0.04235509,-0.108393446,-0.031029329,-0.24713832,0.17351499,0.23196739,0.038526535,-0.006578356,-0.0037644207,0.15153015,-0.03086491,-0.01485078,-0.08361012,-0.09849851,0.20900017,0.066286,0.009796798,0.084477544,0.005050689,0.2153062,0.21502185,0.22546813,-0.19939937,0.20947048,-0.23156786,-0.1655332,0.10978955,-0.21846217,-0.12643147,0.18213558,0.17910644,0.011292517,-0.104554415,0.16257903,0.05518672,-0.046890482,0.24181208,-0.029674351,0.05491069,-0.030065611,0.037044734,0.09983668,-0.10514662,-0.2542565,-0.007098973,0.13731763,0.052241355,-0.089052215,-0.09976116,-0.23743053,0.25557998,-0.18827441,0.1271005,-0.2105391,0.25295016,0.09917155,-0.14565621,0.16523963,0.2297957,0.18311739,-0.23357143,0.07475492,0.15529007,0.16776049,0.07349172,0.17726481,-0.09055306,-0.1209942,0.055061072,-0.11017378,0.027133554,-0.23760012,-0.06989362,-0.17371973,0.057397336,-0.22174469,-0.10270716,-0.2076337,0.024826191,0.14469083,-0.17682357,0.23064287,-0.13590425,0.17488074,0.1455969,-0.05268774,-0.028835297,0.3086137,0.13788287,-0.16961825,-0.17921028,0.11165631,0.18420169,0.17315301,-0.019643651,-0.17707533,-0.06430512,0.08106277,0.19130732,-0.07623332,-0.060427275,-0.20770532,0.25820982,-0.07120916,-0.08903904,0.19241303,0.26853678,-0.13845205,0.19385482,0.08593503,-0.2272571,0.18034942,-0.04975176,0.18329519,0.21225822,-0.26550153,-0.14389712,-0.15009555,0.12446988,-0.19757561,-0.12735373,0.03794933,-0.12570404,0.05785965,0.06721022,-0.061080445,0.3039602,-0.07831139,0.0024299365,-0.25908178,-0.24386783,-0.1181562,0.09416973,-0.030301863,0.16653728,-0.025481185,0.21514575,-0.15686058,-0.11099074,0.07061781,0.013851925,-0.1635832,-0.18777649,0.06691911,-0.019698488,-0.23615038,0.24017937,0.26162776,0.07876951,-0.12041294,-0.1439148,0.18014874,0.023192396,0.24287324,0.02557404,0.29536113,-0.1366266,0.06448617,-0.24376358,0.18407391,-0.16113597,-0.048505373,0.07145412,0.13260296,-0.24335217,0.12666343,-0.007079344,-0.102752425,-0.25343674,0.17982364,0.19668122,0.06324043,0.18121098,-0.19798401,0.23027658,-0.16011536,0.30745223,0.13291936,-0.100713626,-0.022840047,-0.019587915,-0.0076543638,0.19551563,0.09475073,0.29634115,0.23479639,0.17426877,-0.165063,-0.023325695,0.14652951,-0.046808,-0.10263419,-0.13090569,-0.25056386,0.19910336,-0.15788013,-0.05104192,-0.15043242,-0.10591459,0.09751402,0.07287124,0.19830719,-0.022320563,0.043111492,-0.08025572,0.082219854,-0.07873041,-0.056846824,0.23819944,-0.16228375,0.2477011,0.17338517,0.031008953,-0.09112822,-0.15689464,0.31881928,-0.24102736,-0.1337253,-0.0041203154,0.23366973,0.037968624,-0.14718053,0.1466943,-0.17967959,0.06356334,-0.083701715,0.09875421,-0.12760885,0.15580107,0.14554393,-0.12412743,-0.21323259,0.028713623,0.16330631,0.10090468,0.06931308,0.051412787,0.27661183,0.24614248,-0.20874982,-0.24135402,-0.066056654,0.24257675,-0.22756395,0.22161716,-0.16924119,-0.105545536,-0.040864687,-0.19383065,-0.021655694,0.08026091,-0.13023758,0.023080539,-0.1472258,0.08876645,-0.058252774,0.15691528,0.16616748,0.19806026,-0.04166048,0.034150083,0.023820555,-0.29224747,-0.021114774,-0.13060065,-0.04703996,-0.05742361,0.016488828,-0.24231753,-0.23201187,-0.19667096,0.20941791,-0.060360942,-0.14463294,-0.001308641,0.023488034,0.19718558,-0.11038178,-0.17513476,0.10915116,-0.13017042,0.10878768,-0.07413116,0.05220764,0.060845733,-0.04508237,-0.18198827,0.266269,0.028995909,-0.19257407,-0.067512356,-0.06518551,-0.09045215,0.20899066,0.12675107,-0.059904855,-0.25374213,0.11083684,0.242423,-0.033644807,0.2125173,-0.04839759,-0.2185119,-0.11172291,0.14976506,-0.07113575,-0.09018234,-0.08726903,0.1962756,-0.05294515,-0.16791373,-0.23450324,0.15692957,0.20693327,-0.24671598,-0.18885988,-0.14836806,-0.18711916,-0.20836431,-0.11756429,-0.23298103,-0.18444534,0.10706535,0.09843033,-0.11670875,-0.1994189,-0.1595075,0.11019119,-0.26236197,-0.112301834,0.0054209568,-0.043619253,0.2770229,-0.05950014,0.21202616,-0.10897559,-0.13896899,-0.15695669,-0.08212356,0.048671547,-0.13732998,0.1411726,0.1124845,-0.1971674,0.21259128,-0.03446809,0.0675147,0.16449411,0.25311705,-0.22173369,-0.026094373,0.005391769,-0.22969182,0.27745572,0.17054468,0.007937266,-0.24380666,0.031639665,-0.13797386,-0.25226864,0.30659935,0.28746027,0.036718935,-0.033752304,0.13778305,-0.1353667,-0.06076913,0.22173454,0.118810475,0.12603898,-0.09670742,-0.16261394,0.110904746,0.0052283276,0.24194089,-0.27255306,0.21661209,0.013890032,-0.039450236,0.029787013,0.12493404,0.2430007,0.15805642,-0.2826772,0.12731852,0.1894882,-0.16665238,-0.06288416,0.08441861,0.21028644,-0.09752253,-0.22190733,-0.045775484,-0.18263653,-0.25789577,-0.006805167,0.21790808,0.13074863,0.016128695,0.113348104,0.2921382,0.05389088,-0.157068,-0.15197636,0.07301188,-0.0901067,-0.121367656,0.20836763,0.07807357,-0.2020651,0.024820914,0.13191453,-0.041023538,-0.19672368,0.050811633,-0.0035186093,0.15077436,0.024410857,0.16551277,0.22746399,-0.043059383,-0.09576602,0.22575466,0.22289774,0.00089741015,-0.05562597,0.105052315,0.013069768,0.10252651,0.039881956,-0.04945812,-0.054616895,0.24951033,-0.21997468,0.17359272,0.040239055,-0.1380751,0.063693844,-0.30280802,-0.1300852,-0.1258539,0.023662208,-0.27914372,0.039051127,0.099307604,-0.08295173,0.22479942,-0.12413399,-0.09124117,-0.2244788,0.14623798,-0.047348496,-0.011765315,0.24622844,-0.204427,0.2681068,-0.16970184,-0.010003515,0.08134911,0.13178027,0.26308036,0.27792773,-0.14844291,0.020144925,-0.16827513,-0.07830747,-0.15534808,-0.23314074,-0.065722205,0.21844852,-0.20493038,-0.11415167,0.043980077,0.10463376,0.31772593,-0.07183738,-0.12510125,-0.010174823,0.10758954,-0.3074777,-0.06968373,-0.15169632,0.35869256,-0.24318647,-0.043441467,-0.031561296,-0.22781974,-0.1559347,0.08919744,0.42204842,0.16737837,-0.19849394,-0.19319817,0.19087228,0.13273841,-0.06347887,0.17116655,-0.15962991,0.04351435,-0.03318204,-0.04260466,-0.08004013,-0.11139254,0.3930257,-0.14551917,0.11132272,-0.28348908,-0.10759168,0.09405727,0.16131832,-0.101966746,-0.10818888,-0.0035445306,-0.0014000788,-0.25752088,-0.35870734,0.09135645,-0.07414208,0.2148111,0.14872211,-0.17157786,0.175983,0.30213743,0.21227258,0.1663728,0.0012909767,-0.14595966,-0.15241854,0.04882028,-0.037190907,-0.119636096,0.10524288,-0.10090952,-0.09066548,0.27457654,-0.19019298,-0.24053676,-0.00027686873,0.09723058,0.027867582,-0.23616514,-0.22542097,0.08642051,-0.11431094,0.05096134,0.014312866,-0.10854541,-0.016830742,0.11044613,-0.027248021,-0.22934443,-0.19784577,-0.008539457,0.29243153,-0.12416685,0.11007838,-0.0057991203,-0.026386276,0.21909614,-0.011060886,-0.0268093,0.05806775,0.15907004,0.055352885,0.13056436,-0.30524486,-0.175461,-0.0287146,0.1735409,-0.04824011,0.21966006,-0.21678248,0.31550765,-0.1183658,0.029364504,-0.15029435,0.048349746,-0.16486004,0.07213402,-0.11334073,0.16960323,-0.23970315,0.31115413,0.090552054,0.06841303,-0.026617222,-0.050058864,-0.401463,-0.23413545,0.13000353,-0.06335235,0.16519246,0.096764974,-0.10429706,-0.032466453,-0.09216433,-0.031470798,0.11799286,0.23666106,-0.19406976,-0.14594148,-0.07610381,0.020119583,-0.11609228,-0.040516894,-0.06423737,-0.098432064,0.25265077,-0.19727206,0.057857893,0.12028823,-0.21632963,0.310489,0.005265883,-0.24874517,0.18495774,-0.1794268,-0.12675716,0.06849827,-0.031828105,0.12840275,-0.0793434,-0.1215566,-0.15695766,0.0800742,0.22983922,-0.115063354,0.107210055,0.09010945,-0.16462263,0.04498042,-0.22222182,-0.13106376,0.19825883,-0.21122436,-0.20458753,0.22195134,0.22635779,-0.19735672,0.09373188,0.015082874,-0.25288072,-0.08172536,0.082836345,-0.089025274,-0.10120763,0.011866642,0.088921964,-0.050496705,0.1046403,-0.24201079,0.12358212,0.107363015,0.20555866,-0.2599983,-0.17654781,0.053749297,0.17970353,-0.12867147,0.20748541,-0.044422302,0.16426979,-0.09442919,0.071218684,0.03601977,-0.033904523,0.017498136,0.13132316,0.16848701,0.21223056,0.02233097,-0.027786016,0.14440706,-0.22320224,0.04326868,-0.15640628,-0.16868904,-0.12274842,0.11304185,-0.058402896,-0.18987219,0.049411267,0.24349967,0.03681031,0.05097139,0.23601878,0.08074194,0.1466347,-0.23183244,0.062376797,-0.05505185,-0.041254163,0.20155063,0.25382277,-0.19990095,0.037888587,-0.134074,0.17909843,-0.14863218,-0.11382674,0.19357327,-0.24335673,0.025799304,-0.10763337,0.18364707,0.18053505,0.21406788,-0.13802046,0.038082123,-0.19150752,0.24806353,-0.15034291,-0.22264956,0.019483238,-0.05296886,-0.25771362,-0.098250255,-0.092328735,-0.018139526,0.0029125968,0.020532927,0.12239032,-0.17752604,-0.15868363,0.18202826,0.06662708,-0.13311057,-0.027854118,0.22664523,0.15227956,0.2230807,0.07061016,0.025336793,-0.007954433,0.032477945,-0.022097707,0.11096637,-0.18835793,0.17286524,-0.011756194,0.02050608,0.11211772,0.17778239,-0.21659108,-0.22226644,0.16504423,0.01605875,-0.114208885,-0.08474418,0.17421292,0.13797385,-0.09282331,-0.11789057,0.039340872,-0.26899981,-0.16364661,0.10582975,0.12564021,-0.09795632,0.14093138,0.26928037,-0.2249594,0.22133791,0.08165937,0.11615896,-0.002534411,0.13879643,0.05491672,0.2246959,0.13118243,0.015011165,-0.107506596,-0.10830877,-0.20535485,-0.030359415,-0.13071026,-0.13844389,0.09770436,-0.13282226,0.23785602,-0.072055556,-0.24641067,0.12433834,0.12458219,0.09521333,0.14312616,-0.21472323,-0.19147287,-0.21317288,-0.22479284,0.08151401,0.07564355,0.2382252,-0.09922525,-0.051905476,-0.18300083,-0.25393838,-0.058403052,-0.078175716,-0.0049980483,0.102083236,-0.12597348,0.21597837,0.23315269,-0.12009545,0.18059942,0.02227988,0.1765103,-0.23281498,0.18502918,-0.022079205,-0.13255921,-0.15809135,0.22377457,0.21072122,0.06853933,-0.08366318,0.2733589,0.1911533,-0.22461823,-0.07514809,0.03696898,0.33455667,0.23470429,-0.061262205,-0.17786326,0.0020568988,0.10338493,-0.22303034,-0.26809764,-0.006453234,0.12474003,0.27402568,0.036109272,0.27806625,0.16948669,-0.15829462,-0.33419025,-0.15117435,0.26815304,-0.087940246,-0.18491353,-0.26658282,-0.18714437,0.16733588,0.24313001,-0.16543369,-0.13462348,0.2979357,-0.24760792,0.29235727,0.053833585,-0.11641443,0.29626408,-0.29979366,-0.039790012,-0.23876022,-0.02679713,-0.1384478,-0.030948762,-0.08614719,-0.17789894,0.20984215,-0.2434147,0.13054685,0.02416526,-0.18429425,-0.0539191,-0.07059708,-0.23102483,-0.11788708,0.03152617,0.1889284,-0.13321799,-0.112169474,0.010877167,-0.029003616,0.13555503,-0.095554166,-0.0074442243,0.0004837812,0.1645628,-0.03307834,-0.11293264,-0.08140495,0.24264471,-0.038459845,0.2505887,-0.18124834,0.18519385,-0.061912693,0.011137257,-0.12958586,0.06465171,-0.21615659,0.17361873,0.19682857,-0.22205283,0.0072303675,0.11900475,0.22234619,-0.14045346,0.10896935,-0.2275388,-0.09433811,-0.05917191,0.044120774,-0.11447648,0.1926714,0.03377303,0.11080426,0.065030485,-0.20976903,-0.17157012,0.22476585,0.06670227,-0.110390276,-0.19139366,-0.060107835,0.22405823,-0.1394912,0.16031899,0.28825426,0.27593252,0.2606783,0.24346586,-0.024267457,0.24279009,-0.09159516,-0.25864908,-0.25353962,0.04914297,-0.17579953,0.21458755,-0.12448102,0.04308127,-0.19463076,-0.15979719,0.1281546,-0.15016873,-0.02752596,-0.08521567,-0.052093968,-0.045678668,-0.2131265,-0.02789552,0.08300876,0.08434113,-0.010208229,0.21158911,-0.0031751094,-0.17476983,-0.16101547,0.22590944,0.07806036,-0.006892253,0.12535815,0.2234455,-0.21005055,-0.021125048,0.16773316,-0.00093946396,-0.057147928,0.21790318,0.11347592,-0.34574988,0.22896951,-0.19917363,0.07093671,0.22885852,-0.09439676,0.29407835,-0.15176697,0.15148725,0.26167566,0.04025911,0.2209152,0.066305265,0.024163028,0.020171765,0.030635912,0.061562326,0.031412005,-0.09913166,-0.13566884,-0.10370368,0.037473664,-0.34311432,-0.017183302,0.1300357,0.14901482,-0.18832262,0.16985686,0.18194474,-0.21885067,-0.0017874428,-0.2352779,0.10306465,0.27936432,0.20467275,-0.033078764,-0.06590223,-0.24246454,-0.045844458,-0.27054915,0.07181509,-0.10064664,-0.0131778205,0.16954497,-0.1507294,0.21786913,0.24361634,-0.0471772,0.042760268,-0.20602049,0.07328278,-0.13403116,0.16650052,-0.16745405,0.066629834,0.012145868,0.10818918,0.17866132,-0.10258263,-0.13888702,-0.12909321,0.22192684,-0.26062518,-0.108165905,-0.07219972,-0.23551507,0.17389001,0.0031417154,-0.20246044,0.05902121,0.18636125,-0.023735425,-0.21627407,-0.048354488,0.21262737,0.008059827,0.22033334,0.101813845,-0.17331007,-0.09372033,-0.05673443,-0.26094663,0.16241948,0.31900904,-0.1916104,-0.076549314,0.15038909,-0.10310337,0.264762,0.08459981,0.11267376,-0.0652086,0.2280879,0.039104838,0.089354195,0.21665238,-0.025849639,0.2765786,-0.22014223,0.008867429,-0.13584864,0.2467694,0.023357987,-0.19837114,0.024929851,-0.11859821,0.17445797,0.17880964,-0.076943174,-0.12609774,0.017462075,0.042336196,0.035089612,-0.13518342,0.1498065,0.1460273,0.18631092,0.08203757,-0.20180622,0.052864134,0.1915439,-0.122145444,0.02944997,-0.039963752,0.0980314,0.24825618,0.25100282,-0.20593384,0.1804424,0.054329515,0.14843047,0.13117081,0.12414521,0.23326018,-0.01037313,-0.23461683,0.071998715,0.1156162,0.118923366,-0.17573138,0.07788828,-0.02667056,-0.15630525,-0.055984154,0.2352238,-0.13503999,-0.23244292,0.21577448,-0.09113625,-0.17682295,-0.32437575,0.1891142,-0.008553734,-0.073189355,0.19860873,0.22156954,-0.20452768,0.13917156,0.039942045,-0.12505928,-0.15327388,0.3101219,0.22384292,0.22469036,0.028999936,0.23470885,-0.22895285,-0.13265362,0.11890084,0.1422105,0.022697007,0.19711882,-0.3877141,-0.23080292,0.16988061,-0.1842468,-0.16409516,0.09661709,-0.038549177,-0.2362327,-0.028573645,0.023478491,-0.045951273,-0.041472927,-0.16406797,-0.053898446,0.1840922,0.1743386,0.28514445,-0.01906415,-0.06919095,0.09391341,0.055045694,-0.17654064,-0.17714712,0.19998491,0.14120181,0.060658082,0.15259539,-0.07873702,-0.12284832,-0.23051126,0.040425573,0.14960758,0.23650245,0.07112123,-0.0065858765,0.0950055,-0.103652455,0.2695112,0.08169785,-0.06383187,-0.068421595,-0.17365211,0.026668083,-0.008148467,0.06557013,0.18854384,-0.16122125,0.2027898,0.23812072,-0.047178913,-0.25498056,-0.2476332,0.060651228,0.113520294,-0.22842404,0.022058802,0.070800215,0.14146566,-0.19100943,-0.011236678,-0.08023191,-0.076395094,0.24464507,-0.12970735,0.24957192,-0.13854559,0.24394079,-0.09777857,0.0366324,-0.05467624,-0.2577602,0.23495196,0.15357907,-0.075061165,-0.071852155,0.22220819,0.24666212,-0.044363387,-0.07023363,0.10559687,-0.09119572,0.17620125,0.050726116,0.2257694,0.052634656,0.23738036,0.19937393,-0.25574094,0.117904186,-0.2496899,-0.123584524,-0.23069635,0.070231915,0.21630198,-0.056178078,0.11640707,-0.25659502,0.13729545,-0.18860708,0.016894042,-0.015019387,-0.11733335,0.19343376,0.05519104,0.05111468,0.24930045,0.19496813,0.06614977,0.19687542,0.2309838,0.055694044,-0.16163945,0.14486074,0.18458134,-0.2423655,0.20929572,0.0091661215,0.14666954,0.01745227,0.24498764,-0.13996223,-0.11150354,0.07900074,-0.07708605,0.09673002,-0.08397916,-0.2515593,-0.25800097,-0.12836424,-0.23250166,0.1340662,-0.17680097,-0.13880755,0.10671711,0.179503,-0.06996234,-0.14033034,0.23042741,-0.18485121,-0.17380469,-0.1941526,-0.073447704,-0.028333217,0.14018807,-0.012603238,0.19937715,-0.12582399,-0.09797107,0.06918368,0.12657058,-0.22466224,-0.21305694,0.24537519,0.13940585,0.2520816,0.109422356,0.2315436,0.025268406,-0.16438991,0.055584818,0.02250439,0.03855461,0.2520919,-0.104291186,-0.2536979,-0.018828988,0.25252536,0.008913189,-0.09707402,0.10946119,-0.12493476,-0.024644762,-0.11058964,-0.2153014,-0.0911158,-0.2402385,-0.05848889,0.22332585,-0.12038714,-0.08656011,0.24931185,0.11636382,-0.2508126,0.116800584,0.08029818,0.31837147,0.016509328,0.27463844,-0.054494306,0.1983469,-0.09032019,-0.076183714,-0.2409393,0.09668245,-0.04854556,0.023671033,0.04380337,0.1420844,-0.0027528466,-0.013612052,-0.3153164,-0.2974501,0.21472827,0.11641623,-0.17243165,0.03086902,0.16253234,-0.008346956,0.023546318,0.19978611,-0.1931009,-0.16040082,-0.006700203,0.07195414,-0.13983995,-0.17287108,0.3167485,-0.23313722,-0.042592157,0.0821021,0.11496102,-0.130152,0.123674504,0.13267264,0.013836955,0.14098091,-0.11046521,-0.05222506,-0.1612327,-0.24059218,-0.2511475,0.008682104,-0.0012227097,0.07679739,-0.09325457,0.22719464,0.062405523,-0.24424356,-0.030196004,-0.11963004,0.096457124,0.07810616,-0.07551836,0.00021751504,-0.18412484,-0.24381115,0.081644535,0.12365251,0.19339207,0.20457205,0.11277125,0.068930894,0.106413156,-0.09651541,-0.12259796,0.067065865,-0.08753454,-0.061820675,-0.089756966,0.20509715,-0.10445518,0.08508767,0.18040006,0.022648623,-0.06917751,-0.014394824,0.08042136,0.15059389,0.20073615,0.123347096,-0.24282748,0.18162507,-0.0035752102,-0.20318581,-0.10676518,0.07584068,0.16507635,0.1603515,0.18370737,0.084330045,0.009404435,-0.10654007,0.20971204,0.066179775,0.19019964,0.23427482,0.048879154,0.09140734,-0.014285836,0.036324006,-0.22886632,-0.1111009,-0.13791558,0.0044711917,0.16925555,0.21960138,0.0973067,-0.18849921,0.16647683,-0.14606541,-0.114388764,-0.094129056,-0.067048684,0.07090303,-0.25563225,0.06567429,-0.16863999,-0.18399619,0.18905318,-0.22261363,-0.13923734,-0.22333713,-0.22107294,0.23579992,0.04327651,0.1262976,-0.121767424,0.013142,-0.052523434,-0.053499788,-0.08359829,-0.10570164,0.20026483,-0.23873399,0.006932391,0.14409658,-0.12867732,-0.036594667,-0.111560866,0.06634897,-0.06832725,0.24957576,0.099401265,0.22280014,-0.2313833,-0.029592723,-0.21157213,0.25462022,0.06742337,0.25082394,0.2519646,0.011228055,0.12735626,0.1421397,-0.00069868565,0.18297139,0.02601403,0.21956974,0.1874981,-0.115765065,0.06419557,0.049249798,0.24150029,0.05988112,-0.22865117,-0.056554943,-0.19967878,-0.22237457,0.08107296,-0.14171666,0.033364266,-0.15731274,0.07054973,0.031580776,0.054815263,-0.0908066,-0.08317557,-0.02189213,-0.113458976,-0.027695268,0.18577099,-0.22102125,-0.05218588,-0.15727729,0.0939686,-0.106491685,-0.075105995,-0.16531196,-0.38943824,0.10287734,-0.17861885,0.14019918,0.24220252,-0.04124919,-0.09623586,-0.10212033,0.10260075,-0.12129994,0.15138836,0.04601463,-0.19072618,0.15554437,-0.2222007,-0.020519525,0.04793981,-0.06377848,0.04774784,0.1640002,-0.022915449,0.09613788,-0.24115981,-0.24350983,0.3091629,0.19301514,0.09471677,-0.08560812,-0.23715429,0.11115418,-0.082864664,0.045476366,-0.2597327,0.08903504,-0.11632837,0.18647026,-0.13160743,0.22610126,-0.121067435,-0.009288657,0.23635088,-0.25891766,0.011288832,0.17492306,-0.16669442,0.11500028,-0.010909784,-0.12541588,0.017034285,-0.07313677,0.041593105,-0.17064226,0.049236804,-0.013463542,0.10341692,-0.15804191,0.24169642,-0.06267628,-0.10344684,0.14480338,-0.16258062,-0.103900716,-0.05396107,-0.067202866,0.16096094,-0.020681247,0.1571168,0.25583085,0.0383341,-0.12113476,-0.062432513,0.07439393,0.113446236,-0.071844384,0.2038317,-0.032499492,0.20793822,0.105017215,-0.20837423,0.2511178,-0.064066604,0.14561465,-0.18566823,-0.02573818,0.12106261,-0.23117153,0.16285396,-0.23860526,0.015440524,-0.05779536,0.13850626,-0.03495799,-0.23933068,0.154093,-0.16972736,0.23233476,-0.20908679,-0.11040798,0.11574879,-0.25598785,0.040122703,-0.16358165,0.19736612,-0.23895653,-0.1381619,-0.19385609,-0.07979739,-0.15386738,0.25536904,0.16716722,-0.21084516,0.115721755,0.0416484,-0.012120786,0.06948357,-0.21659918,0.25570947,-0.04709766,0.09373199,0.21746126,-0.1186537,-0.02450957,-0.0708981,0.1565778,0.18648362,0.07310549,-0.24636085,-0.08034933,0.070819356,0.03471274,0.0010693618,-0.04032739,0.017555818,-0.079029605,0.10979106,0.128457,-0.122157015,0.030803882,-0.11520798,0.14838836,0.12246633,0.02278829,-0.033434145,-0.2212196,0.13988174,0.04169231,0.073980376,0.16907243,-0.060224116,-0.18908793,-0.15382922,-0.19450793,0.0134027,0.1409423,-0.09719874,-0.093214005,0.0013612509,0.20081043,0.05969286,0.103604555,-0.24997997,0.14885625,-0.18404503,-0.1795081,0.14848462,0.14405486,-0.19663855,0.060230523,0.06615335,0.068629384,0.08542958,0.029628038,-0.075173706,-0.25204885,0.09032589,-0.2147513,-0.19503038,0.13556159,-0.0045969486,-0.23387375,-0.25801674,0.07887313,-0.12663935,-0.13475385,0.2532343,-0.24886784,-0.2369897,-0.18047318,0.045523733,0.057281822,0.084020406,-0.21448807,0.24623641,0.17671484,-0.013445318,-0.04431194,0.09452134,0.054323286,0.19488892,-0.014388472,-0.33897033,-0.22294149,0.15439028,-0.13161904,0.20718767,0.08937975,0.17311919,-0.041428823,-0.02405867,0.19332413,0.157893,-0.025078852,-0.16563183,-0.17310272,-0.14076237,-0.24953414,-0.22444831,-0.18755181,0.1176425,0.26310033,-0.11229266,-0.2204576,-0.32445812,-0.0015579445,0.056981135,-0.124478236,-0.13555199,-0.27982837,-0.1059005,-0.070980944,-0.0436423,0.069486514,0.21196201,0.12455404,-0.23021945,-0.1756805,0.041535437,-0.25201386,-0.17134741,-0.0022645176,0.26445013,-0.08416916,-0.2322494,-0.1447054,-0.05666552,0.06000063,0.25953552,-0.13196479,0.05579424,-0.11812947,-0.11349201,-0.18746853,0.09067918,-0.18856177,0.11807483,0.035480138,-0.06677732,-0.055564765,-0.061216567,-0.17552531,-0.11208445,-0.24698952,0.2259196,-0.243804,-0.10846036,0.21888468,-0.22353047,-0.20357212,-0.18134078,-0.22446756,-0.061788436,0.1400597,0.0018654509,-0.10842515,-0.08788277,-0.111477226,-0.18962546,-0.10992981,-0.20412597,-0.023372324,0.06684312,-0.24450135,-0.060992748,-0.040980943,0.0955622,-0.24783921,0.06517918,0.15763867,-0.16793601,-0.02746674,0.055064235,0.2221139,-0.10232724,0.25382313,-0.10599096,0.1880902,-0.039636,-0.2630931,-0.25467235,0.059444077,-0.26213342,0.17250605,0.1534532,-0.13345207,0.15239528,-0.07539572,0.17368539,-0.10069834,-0.24739122,-0.22825037,0.12200083,0.15758808,-0.23739836,-0.21502353,0.022203326,-0.18744184,0.19294356,-0.036558863,-0.13253823,-0.13639115,-0.054542918,-0.1096196,-0.14280395,-0.12507515,-0.14339975,0.043435514,-0.2352018,0.059073,-0.031479698,0.22933191,-0.18783727,0.22922604,-0.05219361,-0.10204757,-0.22894865,-0.012464521,-0.110857725,0.13217123,0.24643807,0.07721897,0.24124178,-0.081811816,0.14873888,0.113842055,-0.02141831,0.09893223,-0.18758908,-0.18428017,-0.20081463,0.13500014,0.13477054,-0.23637232,0.06818171,-0.19716008,-0.07326629,-9.4590636e-05,0.006673007,0.22128429,0.07831763,0.23798375,0.21985473,0.22175297,0.052111983,-0.21809402,0.038538754,-0.16520664,0.01684908,-0.10652296,0.022006268,0.10471827,-0.2558779,-0.1572261,0.007971887,-0.03759843,0.12743004,-0.08388831,0.19422965,0.19481637,-0.06055811,-0.13851045,-0.18091877,-0.251985,0.23876715,0.21878675,-0.054031055,0.03259289,-0.18313561,0.012209965,-0.030144637,0.078861505,0.0062100803,-0.10829272,-0.07797331,-0.11703903,-0.22295177,-0.018432159,0.06583805,0.1165303,0.07051881,-0.033723608,0.1946596,-0.017397873,0.031703826,-0.18641657,-0.0013166404,-0.00173529,0.029990027,-0.014788784,0.0467275,0.0011368617,0.16293943,0.0022385905,0.06168969,-0.072865486,0.22479177,-0.039930105,0.016549509,0.024729379,0.13338424,-0.025169587,-0.13312905,0.049689077,0.21422341,0.15745708,0.022396235,-0.035995167,0.25651658,0.13940778,0.030296573,-0.10451678,0.00019793445,-0.08887554,-0.059364412,0.0018687138,-0.011340621,0.003568177,0.012537973,0.0020451862,0.026510525,0.19398482,-0.016944667,0.23399548,-0.008493238,-0.10232039,-0.068793595,0.020285962,-0.0027689473,0.04495328,-0.028178552,-0.02445536,-0.7782989,-0.16239375,0.35849598,-0.27662387,0.17450169,0.120824635,0.38237765,0.47848943,0.28342798,0.3537734,-0.18078819,0.35354885,-0.031413525,-0.32637963,-0.5535053,-0.13439597,0.32465807,0.47164118,-0.2418916,0.4801997,-0.3165125,-0.061571788,-0.9324135,-0.4418975,0.5710168,-0.06480285,-0.32223,-0.29515263,-0.089982204,-0.24882609,0.028368672,-0.033246048,0.31776765,0.3521704,0.025239535,0.1983544,0.044561993,-0.014829247,0.63444537,-0.34612998,0.3420473,-0.53162795,0.09671106,-0.30768976,-0.19307296,0.37747034,0.27291042,0.41447687,0.12979108,0.19603762,-0.4180637,};
int* load_weight_size()
{
return weight_size;
}
float* load_weights()
{
return weights;
}
int* load_activation_type()
{
return activation_type;
}
