#include "weight_table.h"
static int weight_size[] = {
	2, 20, 20, 20, 5, 5, 5, 1, 1,
};
static float weights[] = {
	-0.13912433,  -0.042719424,  0.53173053,   -1.5854759,	 1.0773633,
	0.8056739,    0.41173854,    -0.08207048,  0.17682347,	 -1.2045877,
	-0.5509663,   0.7312949,     -0.24706633,  -0.37521377,	 0.58894366,
	-0.6150426,   1.2972513,     -0.04387277,  -1.0089525,	 -0.29841933,
	-0.074715845, 0.3105065,     0.6660939,	   -1.5013888,	 0.15957575,
	-0.118589625, 0.663896,	     0.6359066,	   0.45823008,	 -0.64329255,
	-1.2393643,   1.0806363,     0.14052661,   -1.01276,	 0.47203562,
	-0.08159712,  1.415314,	     -0.25162968,  -0.63991207,	 0.5831536,
	0.003810558,  -0.0099939145, -0.073017344, 0.46591422,	 -0.077316664,
	-0.023228265, -0.061539203,  -0.027558265, -0.018986298, 0.15722324,
	0.15395662,   -0.1476023,    -0.024443833, 0.09971751,	 -0.045642193,
	0.010273373,  -0.36248454,   0.013502408,  0.1277872,	 0.012582926,
	0.40021384,   -0.41485134,   0.102811396,  0.03277133,	 0.35415232,
	-0.41267365,  -0.13492389,   -0.12400494,  0.40467516,	 -0.15582854,
	-0.17041798,  0.64166164,    -0.5791918,   0.56339985,	 -0.34698,
	-0.7015444,   -0.9561411,    1.0935801,	   -0.6965899,	 1.5954075,
	0.5781822,    0.11229009,    -0.5170591,   0.43890476,	 -0.4112492,
	0.15583047,   0.4438064,     -0.1573625,   0.0054848227, -0.29288644,
	0.2349883,    0.5067915,     -0.6662733,   0.18836893,	 -0.024035484,
	-0.059434064, -0.082382716,  -0.42191815,  0.53074163,	 0.13964123,
	0.082343295,  0.48063537,    -0.08945493,  -0.21165046,	 -0.48348463,
	-0.16747296,  -0.4406853,    0.751169,	   -0.673144,	 0.9896344,
	-0.44863775,  -0.1513033,    1.085889,	   -0.19095816,	 0.9022849,
	0.6254095,    0.49939623,    -0.6044384,   -0.059781365, -0.9882064,
	-0.57983035,  0.24780287,    -0.13678564,  0.22230518,	 -0.11842367,
	-0.20011558,  -0.59842294,   0.9444987,	   -0.6995599,	 0.14724517,
	-0.096940376, 0.4994799,     -0.33340928,  0.11756745,	 -0.52839154,
	-0.1316871,   0.051625688,   0.04661578,   -0.04886256,	 0.7591581,
	0.9186507,    -0.07260592,   -1.2165468,   0.5417467,	 -1.2919353,
	-0.23650381,  -0.3999785,    0.033484314,  -0.09060105,	 0.28433043,
	-0.3390529,   -0.28656185,   0.8279803,	   -0.21014732,	 0.9751876,
	0.48203364,   -0.06969696,   0.5015224,	   -0.11844458,	 -0.5170519,
	-0.06798869,  -0.055121172,  0.23565456,   -0.0820951,	 0.08338453,
	1.622394,     1.4281574,     -2.6684873,   1.3676721,	 -2.8567302,
	0.19275156,
};
int *load_weight_size()
{
	return weight_size;
}
float *load_weights()
{
	return weights;
}
